{'W1': array([[[[ 0.09729056, -0.49495247,  0.45862521],
         [ 0.09607499, -0.43979764, -0.32830942],
         [ 0.37274571,  0.04923175,  0.0064519 ]]],


       [[[ 0.15043144, -0.83761038, -0.25435467],
         [-0.59911703, -0.38134536, -0.15915799],
         [ 0.4952008 ,  0.60654894, -0.78652108]]],


       [[[ 0.24116611,  0.89534757,  0.89294452],
         [ 0.40179867, -0.26919565,  0.66643827],
         [-0.00842361,  0.84641974,  0.66987517]]],


       [[[ 0.57943698,  0.61546548,  0.10104454],
         [ 0.17769064,  0.29932422, -0.12696628],
         [ 0.05796877, -1.14415376, -0.19520224]]],


       [[[-0.47832159,  0.16463067,  0.0108295 ],
         [ 0.23557382,  0.39201751, -0.52957886],
         [ 0.82415094, -0.46553928, -0.21072763]]],


       [[[-0.12103731,  0.02032975, -0.72525785],
         [ 0.24213695, -0.66480696,  0.13237161],
         [-0.19055487,  0.14587342,  0.66191823]]],


       [[[ 0.22521985, -0.39552261,  0.34778787],
         [ 0.56369362,  1.02080875, -0.85899986],
         [ 0.64867643, -0.30543832,  0.60763034]]],


       [[[-0.53705841, -0.45187514,  0.89421969],
         [ 0.24278455,  0.24655968,  0.15863452],
         [-1.49052256,  0.49227163, -0.00729179]]],


       [[[ 0.31670204, -0.2410846 ,  0.23915496],
         [-0.05342225,  0.56232416,  0.40377625],
         [ 0.0499807 ,  0.56251998, -0.11007147]]],


       [[[ 0.05937913,  0.33037663,  0.99107339],
         [-0.10825944,  0.1968807 , -0.09460897],
         [-0.72165506, -0.58055103, -0.88816352]]],


       [[[-0.19494542, -0.95746284, -0.66957458],
         [ 0.52418851, -0.17378881,  0.5223534 ],
         [ 1.06756433, -0.09697193, -0.40034527]]],


       [[[ 0.49273015,  0.38665081,  0.38122031],
         [ 0.55938582, -0.31650443, -0.86470296],
         [-0.21836769, -0.24019882,  0.44459431]]],


       [[[-0.29838295,  0.30012761, -0.16161313],
         [ 0.41648323,  1.15485311,  0.79030488],
         [ 0.0202616 ,  0.01093835, -0.37120362]]],


       [[[ 1.01788011,  0.2497602 , -0.08468978],
         [-0.19402599, -0.77047332, -0.2019336 ],
         [ 0.58841155,  0.03432631,  0.32414897]]],


       [[[-0.09606121, -0.42927138,  0.75124353],
         [-0.48992043,  0.0258474 ,  0.02204836],
         [-0.41437045,  0.63404261,  0.69830933]]],


       [[[-0.20834988,  0.15843774,  0.77662282],
         [ 0.43447416, -0.11726847,  0.07525736],
         [-0.51817257, -0.06773152, -0.74316759]]]]), 'b1': array([-0.00515172,  0.00609348, -0.09754785, -0.00634678,  0.00267557,
        0.02023789, -0.06319091, -0.0022132 , -0.01542526, -0.00366706,
       -0.00141996, -0.00483621,  0.03749906, -0.00992538, -0.00358232,
        0.02743288]), 'W2': array([[[[-2.95210860e-03,  5.42283209e-02,  5.39690160e-02],
         [-1.70396792e-01,  7.28072009e-02, -1.00858626e-01],
         [-2.28109343e-01,  8.81937864e-02,  2.03592203e-01]],

        [[ 1.99360046e-01,  1.56380736e-01, -2.29240311e-01],
         [-3.05952465e-01,  1.75497159e-02, -1.42625006e-01],
         [-8.89070022e-02, -9.68454682e-02,  1.23051691e-01]],

        [[ 7.66619642e-02,  1.85335646e-01,  1.31403393e-01],
         [-1.10802566e-01, -9.69496163e-02,  1.22654378e-03],
         [ 7.26866114e-02, -5.72487276e-02,  1.61146220e-01]],

        ...,

        [[ 7.06602581e-02,  1.19372469e-01, -9.56244995e-02],
         [ 2.22566762e-01, -1.09056482e-01, -5.17263768e-02],
         [ 1.12877073e-02, -5.40392969e-02, -6.43818405e-02]],

        [[ 3.69512164e-03, -2.70516026e-03,  1.26922710e-01],
         [ 1.06035130e-01,  3.70909116e-02,  1.53154102e-01],
         [-1.76196036e-01, -4.55559728e-02, -1.36519384e-01]],

        [[ 6.81459664e-02, -5.24565971e-03, -1.51474335e-01],
         [-1.78515113e-01, -1.08758616e-01, -1.13119473e-01],
         [-1.94441882e-01,  2.29093075e-02, -1.28630785e-01]]],


       [[[-1.77950890e-02,  1.19435120e-01, -3.19602016e-01],
         [ 6.47849117e-02, -8.48551932e-02, -4.15121580e-03],
         [ 1.37571418e-01,  3.05542979e-01,  1.34507066e-01]],

        [[ 7.30044242e-02, -2.85536467e-01,  3.59530195e-02],
         [ 1.42633722e-01,  5.28840615e-02,  1.32688070e-02],
         [ 1.47544410e-01,  2.93339977e-01,  4.73317878e-02]],

        [[ 2.61306706e-02, -1.42881595e-01,  1.39258637e-03],
         [-3.03515799e-01, -7.53210184e-02,  2.04723072e-01],
         [-1.28361919e-01, -2.67682807e-02,  5.65149817e-02]],

        ...,

        [[ 2.73302007e-01, -1.21114541e-01, -1.85001812e-01],
         [ 2.26856355e-01, -6.79113181e-02, -3.27147856e-01],
         [ 2.14758255e-01, -2.73900931e-02, -1.65146490e-01]],

        [[ 2.70065563e-02,  1.29818953e-01,  1.78679285e-01],
         [-1.95605821e-02,  2.68595757e-01,  1.71203640e-01],
         [-9.31556236e-02,  7.26503118e-02,  2.64274618e-01]],

        [[-2.62790519e-01, -3.49801639e-01,  1.99337508e-01],
         [-2.47876354e-01, -3.03504312e-01, -3.65120507e-02],
         [-2.07027954e-01, -1.96144257e-01, -1.64778940e-01]]],


       [[[-7.94417675e-02, -8.32638482e-02,  1.62837548e-01],
         [-7.30555122e-02,  8.16463365e-02,  6.25896213e-02],
         [-8.41634632e-03, -3.10699636e-02,  3.39681648e-02]],

        [[ 1.83434875e-01, -4.87615728e-03,  7.41201126e-02],
         [-1.73051668e-01, -2.05890446e-03,  4.93922943e-02],
         [ 6.30749514e-02,  1.41584645e-01,  7.46510119e-02]],

        [[ 1.82181874e-02, -4.29021046e-03, -2.35332900e-01],
         [-8.29973253e-02, -1.33790993e-01, -7.42098658e-02],
         [ 3.48022147e-02,  3.73170156e-01,  1.56544083e-01]],

        ...,

        [[ 1.52797569e-02,  1.36692858e-02, -8.56096693e-02],
         [-1.97657955e-01,  1.76067063e-02, -1.50200175e-01],
         [ 9.22142097e-02, -4.18874938e-02,  2.40271814e-02]],

        [[-4.24371960e-02, -7.70481773e-02, -2.51306339e-02],
         [ 2.00016471e-02,  1.88078734e-01,  6.95563251e-02],
         [ 5.81726022e-02, -1.65103204e-01, -9.67111245e-02]],

        [[ 3.73364682e-02, -5.96888788e-02, -1.42233887e-02],
         [ 2.25989647e-01, -4.28453387e-02,  5.93897376e-02],
         [ 1.20159964e-01,  7.86851952e-02,  1.99462788e-01]]],


       ...,


       [[[-1.15007717e-02, -4.84502815e-02, -2.81594933e-01],
         [-2.09410806e-01, -2.52876836e-01, -1.60000442e-01],
         [ 2.75949213e-02, -9.52341532e-02, -5.52261073e-02]],

        [[-7.47066017e-02, -2.06390768e-01, -2.39402016e-01],
         [-7.89662058e-02,  3.26068724e-01, -1.52111950e-01],
         [-1.85377670e-01, -3.29410270e-02, -2.07455381e-01]],

        [[-7.03990061e-05,  8.92184504e-02,  1.03362559e-01],
         [ 6.25706363e-02, -2.52516576e-02, -3.44885339e-03],
         [-8.79150741e-02, -6.95154928e-02, -5.01292058e-02]],

        ...,

        [[-7.37432568e-02,  9.49973265e-02, -7.58134628e-02],
         [ 1.66217666e-01, -8.07516333e-02,  1.76114027e-01],
         [-1.95753617e-01, -2.20009008e-01,  1.19738524e-01]],

        [[-2.63254210e-02,  1.00696382e-01,  2.82862793e-01],
         [ 1.98450567e-01,  1.38596045e-03, -2.02965341e-02],
         [ 7.68162313e-02, -5.63172670e-02, -1.85746807e-01]],

        [[-6.63549785e-02, -6.37161139e-02, -8.41365311e-02],
         [-6.00788610e-02, -1.32791308e-01,  8.26032819e-02],
         [-1.55993542e-01,  5.85397310e-02,  3.98696476e-02]]],


       [[[-1.28885405e-01, -7.31717208e-02, -2.98972307e-02],
         [ 7.36649885e-02, -1.26015545e-01, -1.02741277e-01],
         [-1.60809013e-01, -4.20172943e-02, -1.17036893e-01]],

        [[-3.28318858e-02, -1.61687986e-01, -2.09205336e-01],
         [-3.08563002e-03,  1.11047750e-01, -1.29123697e-02],
         [-3.16197668e-02,  2.46035395e-02, -1.05697137e-01]],

        [[-6.34159599e-02, -3.22210190e-02,  3.21913096e-02],
         [ 3.69556830e-02, -3.06915448e-02, -1.94175239e-01],
         [ 9.14146034e-02,  1.37199820e-01,  1.15011677e-02]],

        ...,

        [[-6.11580716e-02,  1.79624390e-01,  1.04012747e-01],
         [ 1.50002260e-01, -1.25904068e-01, -1.88594803e-01],
         [ 2.46433257e-02, -3.43482645e-02, -1.21488735e-01]],

        [[-1.54851085e-01,  2.26386874e-02,  5.43568500e-02],
         [-7.14076598e-02,  2.16259592e-01,  1.28947153e-01],
         [-2.36246115e-02, -3.25637603e-02, -1.75860572e-01]],

        [[ 4.09539044e-02, -1.68880159e-01,  2.01718093e-02],
         [-1.29428128e-01, -9.73716003e-02,  8.39547456e-02],
         [-2.41623533e-02,  1.65242746e-01,  4.56985401e-01]]],


       [[[ 7.59981226e-02, -1.26255097e-02, -1.50519356e-01],
         [-9.36254704e-02, -1.99010267e-01, -2.24048326e-01],
         [-8.17705355e-02, -3.01842466e-01, -4.63732554e-01]],

        [[-1.13136606e-02,  1.90999291e-01,  1.25327882e-02],
         [ 1.94150828e-01, -4.67186264e-02, -3.03244953e-01],
         [ 7.32875951e-03, -4.15187573e-02, -7.84057124e-02]],

        [[ 2.46227726e-02,  1.59906050e-01, -5.29058827e-02],
         [-7.06964034e-02, -1.09657084e-02,  3.36103467e-02],
         [-7.22437715e-02, -2.79136221e-02, -1.11055912e-01]],

        ...,

        [[-5.62449571e-02,  6.91454479e-02,  9.98852485e-02],
         [-9.47880839e-02,  1.31999352e-01,  2.02159370e-02],
         [-7.72006545e-02,  1.59766155e-01,  1.58767223e-01]],

        [[-2.82364544e-01,  1.32286780e-01, -1.14761476e-01],
         [-5.73908675e-02,  1.28142836e-02,  2.90570335e-02],
         [ 1.76387049e-03,  2.22775002e-01,  1.45986012e-01]],

        [[ 5.49085179e-02,  9.55901471e-02,  2.55695637e-01],
         [ 1.19686104e-01,  1.93126553e-01, -1.64029634e-01],
         [ 8.81788296e-04, -5.80574133e-02, -3.41542199e-01]]]]), 'b2': array([-0.09884767,  0.03242691, -0.05774415, -0.00808585, -0.0564057 ,
       -0.03609668, -0.0923885 , -0.00582041, -0.02302162,  0.01803843,
       -0.02870308,  0.02041421, -0.03301973, -0.06497008, -0.0514913 ,
       -0.02282038]), 'W3': array([[ 0.0109545 , -0.2205663 ,  0.08617703, ...,  0.04953749,
         0.00499248,  0.07293976],
       [ 0.00627949, -0.02548209, -0.1026871 , ..., -0.18450188,
         0.01936619,  0.00506487],
       [ 0.19885757, -0.15817829, -0.19271343, ...,  0.16547364,
        -0.11142717,  0.05541023],
       ...,
       [ 0.08886713,  0.20160181, -0.06658299, ...,  0.1174825 ,
        -0.21861802,  0.00906102],
       [-0.11469535,  0.083651  ,  0.29845294, ...,  0.25131508,
        -0.05014076, -0.04120477],
       [-0.08692552, -0.14916001, -0.16035943, ...,  0.03852795,
        -0.04930949,  0.05942675]]), 'b3': array([ 0.00084108, -0.05333535,  0.00040344, -0.02351364, -0.01107906,
       -0.00534256, -0.01525239,  0.02423331, -0.04902278, -0.03624979,
       -0.03862314,  0.00774975,  0.01807871,  0.02033568, -0.08514427,
       -0.01375997, -0.01725659, -0.02057779, -0.01676053, -0.00438563,
       -0.0043947 , -0.00453806,  0.00441389, -0.01840655, -0.02294311,
       -0.0211639 ,  0.00011003, -0.031454  ,  0.03425991,  0.03647351,
       -0.01945483, -0.04666171,  0.01951915, -0.02049379, -0.07085815,
       -0.05009665,  0.05343768, -0.02664048, -0.01443015, -0.01387809,
       -0.03937891, -0.0145109 ,  0.00543218,  0.00986488,  0.02425464,
       -0.03865223, -0.00144492, -0.02698008,  0.01354824,  0.06558834]), 'W4': array([[-3.44368190e-01, -2.15466760e-01, -4.32774712e-01,
        -2.86718656e-01, -2.26679032e-01,  3.27403712e-01,
         1.80897121e-01, -5.80931424e-01, -4.55350336e-01,
        -2.50539300e-01],
       [-3.86205503e-01, -3.44916511e-01, -3.08624509e-01,
        -2.30647028e-01,  1.03069575e-01, -5.68013067e-02,
        -4.45892056e-01,  1.18335120e-01,  1.92834716e-01,
        -1.95005993e-02],
       [-4.24261818e-01,  1.11471069e-01,  1.26689711e-01,
        -3.15004676e-01,  1.29588868e-01, -2.01973093e-01,
        -2.62108156e-01, -3.22593760e-01, -7.69659532e-02,
        -3.05690485e-01],
       [ 5.06675309e-02, -2.73927969e-01,  1.59335451e-01,
        -1.63113040e-01, -3.50517318e-01, -2.92059686e-01,
        -3.79519222e-01, -8.06789372e-02,  1.49913509e-01,
        -4.38224031e-01],
       [-4.98611072e-01,  4.07701179e-02,  7.89935422e-02,
        -6.40250973e-02, -6.10600941e-01,  7.33551068e-02,
         4.98482882e-02, -5.43081985e-01,  6.95556797e-02,
        -3.94896009e-01],
       [-4.92036563e-01,  1.43678636e-01, -4.26341526e-01,
         2.22486978e-01, -3.17834610e-01, -1.42192542e-01,
        -1.50416985e-01, -2.00997913e-01,  9.32384239e-02,
        -3.38173479e-01],
       [-3.63992196e-01, -2.08726290e-01, -9.46045058e-02,
        -2.35657049e-01, -2.94712230e-01, -4.06279857e-01,
         3.05569221e-01,  1.08507682e-01, -2.65760596e-01,
         6.10703086e-02],
       [ 2.17521713e-01,  1.54833438e-01, -4.34957596e-01,
        -2.18969269e-01, -8.76001452e-02, -1.90341194e-01,
        -3.69567139e-01, -1.26408249e-01, -2.81043299e-01,
         2.35926250e-01],
       [-2.59291647e-01, -2.86992783e-01,  7.59136937e-02,
        -1.09019147e-01,  3.54357087e-01, -3.22233901e-01,
        -1.85191003e-01, -1.83040084e-01, -2.34998303e-01,
        -2.08299385e-01],
       [ 7.57563611e-02,  3.78550606e-02, -1.70764044e-01,
        -2.04744143e-01, -4.12962379e-01, -2.45750544e-01,
         1.02839328e-01, -4.99796727e-01,  1.74943676e-01,
         3.77167329e-02],
       [-3.65297350e-01, -6.91191488e-01, -4.03182775e-01,
         2.73138946e-02, -2.36992935e-01,  9.95000143e-02,
        -4.68059001e-02, -3.66656349e-01,  1.04746951e-02,
         8.53572064e-02],
       [-2.27700306e-01, -3.84462410e-01,  1.75747842e-01,
        -2.82843650e-01, -4.66956588e-01, -4.26054366e-01,
        -1.33093768e-01,  1.09430279e-01, -2.25407973e-01,
         2.12917750e-01],
       [ 1.99480807e-01,  2.08890187e-01, -3.32967465e-01,
        -5.47363693e-01, -2.44779571e-01, -2.85019579e-01,
        -2.29379945e-01,  1.52241893e-01, -1.25711213e-01,
        -2.71021873e-01],
       [-4.14047971e-01,  1.49235433e-01, -4.28250806e-01,
        -3.26254709e-01,  1.76028071e-01, -4.30706850e-01,
        -3.27472964e-01,  1.32854355e-01, -2.61863105e-01,
        -2.15695005e-01],
       [-3.32201562e-01, -3.37816267e-01, -1.21669423e-01,
        -2.42035295e-01,  1.32755547e-01, -2.61369172e-01,
         1.76934291e-01, -2.87814454e-01,  2.20084728e-01,
        -1.69055659e-01],
       [-2.73211252e-01, -4.07138515e-01, -3.39438889e-01,
        -3.56943547e-01,  1.62223506e-01, -3.14062306e-01,
         2.36891727e-01,  1.72645820e-01, -4.82080794e-01,
        -3.06440159e-01],
       [ 6.82609679e-02, -4.50354089e-01, -2.60701352e-01,
        -3.90240745e-01,  1.27343067e-01,  9.42187627e-02,
         1.04788300e-01, -4.89465457e-01, -2.76521369e-01,
        -5.93720676e-01],
       [ 2.87293929e-01, -1.28780899e-01,  3.59333291e-01,
        -1.52938856e-01,  3.69396383e-02,  8.76842400e-02,
         1.40404117e-01,  1.36046319e-02,  4.36751456e-01,
         2.00362877e-02],
       [-3.42728031e-01, -3.43698255e-01,  8.60947398e-02,
         1.75628768e-01, -3.19107947e-01, -2.54548313e-01,
         1.32766500e-01, -2.87244474e-01, -1.48854361e-01,
        -5.26192092e-01],
       [-1.01515779e-01, -2.31542509e-01,  9.22513882e-02,
         1.70885662e-01, -4.80304567e-01, -3.23445238e-01,
        -3.82941066e-01,  9.99550301e-03, -2.06221081e-01,
        -3.64568328e-01],
       [-3.00401501e-01, -1.93701187e-01, -1.15615473e-02,
        -2.20318940e-01, -2.27598766e-01, -2.13138271e-01,
        -2.22466296e-01,  3.22053252e-01, -2.10451926e-01,
        -2.43420295e-01],
       [-4.86504056e-01, -1.03198672e-01,  2.66363287e-02,
         1.38190339e-01, -2.17428314e-01, -3.75216745e-01,
        -5.26431828e-01,  2.60573593e-02, -2.33208858e-01,
         7.77061677e-02],
       [-4.59486355e-01, -3.18359063e-01,  1.66809289e-01,
        -2.77766409e-01, -8.41833340e-03, -4.04283307e-01,
        -7.39471229e-01,  1.67003542e-01, -2.71163761e-01,
         6.09012824e-02],
       [ 1.24146444e-01, -1.74102483e-01, -1.90161037e-01,
        -2.50271678e-01, -1.90392501e-01,  8.17578943e-02,
        -2.57229900e-01,  8.67289928e-02,  1.10134391e-01,
        -1.75260523e-01],
       [ 1.60401539e-01, -4.62183689e-01, -1.83468249e-01,
         2.64912795e-01, -1.90641744e-01, -2.43843143e-01,
         4.14531757e-02, -2.45723898e-01, -2.04539695e-01,
        -2.14597279e-01],
       [ 1.72285237e-01, -4.55421592e-01,  6.54614198e-02,
        -3.97971597e-01,  1.72720266e-01, -3.05228767e-01,
        -2.88086078e-01, -3.65720779e-01, -2.41411922e-01,
         1.48234160e-01],
       [ 9.91883822e-02, -5.52651677e-01,  1.95454818e-02,
        -2.11060666e-01, -2.36398366e-01,  2.22626507e-01,
        -2.97713325e-01, -3.61920250e-01, -2.12672393e-01,
        -1.52107944e-01],
       [ 8.07993451e-02,  8.50917755e-02, -2.00758926e-01,
         4.95597709e-02,  5.25020849e-02, -1.21067948e-01,
        -1.06730737e-01, -3.92772981e-01,  1.35459466e-01,
        -3.59896225e-01],
       [-4.62890451e-01,  1.38795317e-01, -2.61711862e-01,
        -3.67293833e-01,  9.11678402e-02, -9.82338869e-02,
        -3.50471315e-01, -3.98691297e-04, -3.64681788e-01,
         9.29701262e-02],
       [-4.25632705e-01,  2.58344970e-01,  2.58623968e-01,
        -2.79906168e-01, -4.35062554e-01, -1.43426479e-01,
        -4.38714878e-01, -2.82812738e-01, -3.06975152e-01,
        -2.69654768e-01],
       [-2.87897105e-01, -1.17315805e-01,  1.50200548e-01,
         1.69774648e-01, -1.46550125e-01,  2.50429876e-02,
        -2.08524479e-01,  1.65669365e-01, -8.78021669e-02,
         2.72947836e-03],
       [-7.41651140e-02, -1.01533158e-01, -1.13898129e-01,
        -1.68823611e-01,  1.99827442e-01,  3.50785959e-01,
        -4.10069612e-02, -1.81107421e-01,  2.35984945e-01,
        -2.80862488e-01],
       [ 2.45925317e-02, -2.21567302e-02, -3.75534205e-01,
        -2.57150135e-01, -5.80961810e-01,  2.68632601e-01,
        -3.37991844e-01,  1.61992653e-01, -4.34977671e-01,
        -9.09264363e-02],
       [-3.75448608e-01,  5.48589581e-02, -2.40901154e-01,
        -1.99785780e-01,  2.81805998e-02, -3.35473104e-01,
        -4.07542158e-01,  5.51055239e-02,  1.23471247e-01,
         3.65613140e-02],
       [-4.97199294e-02, -4.60071709e-01,  1.70448301e-01,
        -2.28613764e-01, -2.41329794e-01, -3.05401750e-01,
        -3.75531408e-01, -3.47111036e-01,  2.39878617e-01,
        -2.76969834e-01],
       [-4.09288616e-01, -5.22042620e-01, -2.13617261e-01,
        -1.57965080e-01,  1.67147233e-01, -1.52945534e-01,
        -4.37578394e-01, -2.44838721e-01, -2.92632049e-01,
         1.47977091e-01],
       [ 1.19816366e-01,  1.55764580e-01,  1.19061733e-01,
        -4.42981600e-01, -2.53265228e-01, -3.34665157e-01,
         1.15684610e-01, -4.04286484e-01, -1.75515059e-01,
        -5.05151342e-01],
       [ 1.06891994e-01, -4.92072263e-02,  1.61484205e-01,
         8.02866078e-02,  7.24925918e-02,  5.25892969e-01,
        -5.90710862e-02,  1.09500249e-01,  1.99877017e-01,
        -1.34420044e-01],
       [-1.78056807e-01, -8.20856926e-02,  1.42368002e-02,
         1.70401968e-03, -1.90522020e-01, -2.58508577e-02,
        -3.29984678e-01,  1.89790106e-01, -2.06999626e-01,
        -8.57932977e-02],
       [ 1.63222328e-01, -5.06393693e-01, -1.83279750e-01,
        -3.06319433e-01,  1.42387304e-01, -3.71842032e-01,
         1.49943100e-01, -4.20084129e-01, -2.26134845e-01,
         1.06037933e-02],
       [ 7.22794966e-02, -5.06450302e-01,  1.18778313e-01,
        -1.65842721e-01,  3.44849314e-02, -3.26553631e-01,
        -1.28134813e-01, -3.06142263e-02, -3.12686250e-01,
         7.00749116e-02],
       [-3.91383135e-01, -2.46555172e-01, -2.42167319e-01,
         3.14392667e-01, -4.03091938e-01, -3.19423650e-01,
        -3.68495643e-01,  1.50599493e-01, -3.31536620e-01,
        -1.02363748e-01],
       [ 6.81695577e-02, -2.59247354e-01,  3.06592536e-02,
        -3.29004461e-01, -1.89052107e-01, -3.12829048e-01,
         1.09468673e-01,  6.09372010e-02, -2.64621574e-01,
        -3.18769920e-01],
       [-5.06438666e-01,  7.89888803e-02, -5.99092777e-01,
         1.00444180e-01,  1.52607465e-01,  1.87827088e-01,
        -2.96970851e-01, -1.62901685e-01, -3.79182614e-01,
        -3.49142203e-01],
       [-4.45551086e-01,  2.29551621e-01, -3.87166390e-01,
        -4.98843895e-02, -2.18467337e-01, -4.62415056e-02,
        -2.91272257e-01, -2.67517690e-01, -2.36957929e-01,
         3.08659695e-01],
       [-1.57322193e-01, -4.09119562e-01, -1.82081753e-01,
         8.37079426e-02, -2.12716631e-01,  5.90724226e-02,
        -3.35878431e-01, -1.88803205e-01,  2.33531070e-02,
         8.62127184e-02],
       [ 2.36658148e-01, -5.22417866e-01, -2.66833373e-01,
        -1.74913162e-01, -4.57548732e-01, -3.75260471e-01,
        -4.29261426e-01,  8.47233806e-02, -3.91919760e-03,
         1.27532210e-01],
       [-2.86931018e-01, -4.58849880e-01, -3.61616395e-01,
        -3.20017083e-01, -4.82449792e-02,  1.02267619e-01,
         6.81368418e-02, -2.63095994e-01,  5.15457820e-02,
         1.01245375e-01],
       [ 2.40324760e-02,  8.93613861e-03,  5.49960432e-02,
         1.33892261e-02, -5.05681786e-01,  7.59861162e-02,
        -5.46562730e-02, -5.22470829e-01, -1.30948469e-01,
        -3.66598271e-01],
       [-3.36167097e-01,  3.20888496e-01, -2.39518502e-01,
        -3.00316333e-01, -3.42526110e-01, -3.04964837e-01,
         3.10881583e-01, -1.30914149e-01, -2.96713954e-01,
        -2.92023564e-01]]), 'b4': array([-0.14487679,  0.14421166, -0.08214879,  0.2380505 , -0.11259359,
        0.14804453, -0.10825105, -0.01557081,  0.21824461,  0.04888538])}